encog,BasicNetwork,java,3.3.0,1,1479237893835
[BASIC]
[BASIC:PARAMS]
[BASIC:NETWORK]
beginTraining=0
connectionLimit=0
contextTargetOffset=0,0,0
contextTargetSize=0,0,0
endTraining=2
hasContext=f
inputCount=42
layerCounts=3,31,43
layerFeedCounts=2,30,42
layerContextCount=0,0,0
layerIndex=0,3,34
output=0,0,1,0,0,0,0,0,0,0,0,0,0,0,0,0,0,0,0,0,0,0,0,0,0,0,0,0,0,0,0,0,0,1,0,0,0,0,0,0,0,0,0,0,0,0,0,0,0,0,0,0,0,0,0,0,0,0,0,0,0,0,0,0,0,0,0,0,0,0,0,0,0,0,0,0,1
outputCount=2
weightIndex=0,62,1352
weights=0.1313779741,0.0292871574,-0.0007770173,-0.1111290679,0.0062158184,0.315130855,-0.1793298918,-0.0083683018,0.239054068,-0.092354746,0.2361572594,0.0619468406,-0.1521585662,0.1350007646,0.1110775693,0.0174591825,0.3202865949,0.1219576039,-0.0567378492,0.1781200947,0.0541401305,0.0616703681,0.1950687475,-0.0888268633,0.1899532497,0.3042701918,0.3556749935,0.1405427149,-0.0165698411,0.019305264,-0.005891896,0.0130527219,0.1469369304,-0.2116627356,0.1298509528,0.2539940503,-0.0941982361,-0.2066355239,0.223174529,0.2048368095,0.051499891,0.0224652102,0.3970685486,-0.417960625,-0.1755490566,0.3234777215,0.1475819146,0.1299221249,0.206740158,-0.2789459582,-0.0608601117,-0.338857969,0.2817444639,0.086368225,0.1482614656,0.0078588854,-0.1670597859,-0.0474685634,0.1290138124,0.4750232764,0.1853639461,0.0850285657,0.5277409694,2.0788129988,0.0907236,0.3292669526,1.2035096689,0.1029671392,0.2732744162,-0.1671905092,0.4019473585,-0.1502998189,0.9227383251,-1.4635652121,0.2861646026,-2.2230568166,0.1961166833,-1.3265996227,0.0388992979,-0.5204824791,0.3249477427,-0.3731393913,0.057101494,-0.4844329112,0.3719067663,-0.0703320887,-0.2765818797,1.8272000098,0.2325891449,0.192907019,-0.9055895546,0.8255024172,0.2666804765,0.1505113456,-0.0659640887,2.9537672554,0.2037693095,-0.2323492718,4.5530954266,-5.6438002301,0.3743813239,0.3901354015,1.7129323427,0.9425482612,0.3953076859,-5.3931228835,2.5338165689,-1.0454366969,0.2526389832,0.6393925575,-0.7133069174,-1.0531172236,1.9130475945,2.6685508703,-0.7314493487,0.0284484144,-0.0825706309,1.261708358,-0.248821568,-0.2523590693,-0.16876204,0.5883807316,-2.2379566904,-0.6493021402,1.1441364358,1.8257627302,-1.0788217515,-1.1067580043,-0.320225232,1.9782787135,1.9984215201,-0.7319503495,1.1645900116,1.5560626563,1.1937250465,-0.1764290603,0.5954892837,0.6788235266,-2.0890413302,0.0154398922,-2.5242905624,-5.9892842306,-3.0927598461,-0.1354542889,4.212211745,0.0976954829,-1.8343446685,0.7837901505,-2.6015465118,2.1162968672,0.0235900374,0.0454410165,0.3237564042,-0.0065048518,0.0832674056,0.1797822053,-0.1373494641,-1.5321904971,0.2060185289,0.5028809566,3.0177244674,-1.840842121,0.2678816061,0.0363673382,1.387777066,0.2641186616,0.1851165014,0.5740390712,0.3001980562,0.229367478,0.0298347762,0.4544067649,0.1208172762,0.1049139918,0.1518446965,0.1296848158,0.2911264592,0.9187664415,0.1414230138,-0.006108968,-1.378437245,0.4165498908,-0.0181767554,-0.8046514175,0.6118333961,-1.0718868469,2.3046932558,3.0037859901,-3.6223022615,-0.9700831365,-2.0275308725,-1.2053234983,-1.4603102802,-0.090505275,0.4975047819,-0.4470672484,-0.3695049945,3.372011253,-0.5089046032,-0.0403986715,-0.0998426351,0.5348703831,0.0042216728,0.4048166841,1.1341934701,0.040381665,0.1470188586,-0.037494464,0.2263166678,0.009749041,-0.1218112439,2.9485116007,-0.0875499018,-0.1193782857,-0.2012537367,0.4112841611,1.4277426041,-0.4889792408,0.0600087732,0.4850418115,0.6761777613,-0.1009079984,-0.1552860058,0.42413697,-2.4039816228,0.0038063994,0.636026635,-3.2496783575,1.0942741692,-0.6178746953,-0.5123422785,2.9387190202,-0.1933640949,0.8564004988,-2.7805164794,-0.9750550755,0.1303221928,0.1897316609,-0.1615376354,0.235894809,0.7272694513,0.6453955181,0.5400704805,0.7728360365,0.0399059256,0.4485494464,0.5260835246,-0.5123749278,0.0642260482,-0.165973927,-0.035188595,-0.3509291089,0.0087830632,0.229476155,0.1776620998,-0.7254189865,0.1250519471,-0.2458645489,0.4960548077,0.472347149,-0.0331878795,0.3658634534,0.8777503238,-0.4331400371,0.053123192,0.1266350211,0.6297728922,-1.8092978179,-0.0957949487,0.5801094352,0.3157298445,0.5816987975,-0.1222055621,0.7875801346,-1.4098684338,0.8575317019,-0.085726247,0.5953922508,0.3737881938,-0.0251376767,-0.1750092567,0.4374915525,-0.2393596375,0.055370705,0.3488645558,-0.8696368808,-0.2022560313,0.0225318843,0.3176006326,-0.1677109814,-0.3045724462,-0.0128940927,0.1905106928,0.1381499512,0.3872743677,0.0137059121,-0.1316674061,0.5892749508,-0.0512670893,0.2963010383,-0.4328711485,1.6295326417,-0.4741901586,0.1732702187,-0.1995347325,-0.3803414137,0.806770027,0.1215129862,0.3177891632,-3.234145548,0.6514552231,0.080614456,0.0252082383,2.4553206438,-0.7759838204,-0.217477419,0.1431875243,0.1167402996,0.3309309595,0.331509415,0.5692887622,-0.3494127764,-0.0339433664,-0.2454544887,0.3279948533,0.4166836334,-0.3257449895,0.3008266146,-0.7400921387,-0.0599336365,0.0843888455,0.1769715358,-0.33619746,-0.4553833127,0.0365669295,-0.6407503634,0.8058083486,0.1110037819,0.004384473,0.2662784955,0.0878386321,0.6169574234,0.0847521753,0.4925605816,0.3949069867,0.68719349,0.4451055989,0.1440000535,0.6632219282,0.1515897287,0.1453949516,0.4784688101,0.6577381072,0.947979487,0.195589409,0.1887133458,-2.5274642924,-0.6948917642,0.3021861205,-0.2024876193,0.9898831331,-0.5910406127,0.3551193397,1.2559612463,-0.7825186672,0.0888844262,0.286121996,0.3785053628,0.3999964133,0.6195208378,-0.0045864305,0.3740773173,-0.1836976938,0.0084676039,-0.3962387584,-1.4490033129,-0.3908033641,-0.20620733,-0.394859518,-1.1777491705,-0.1793275288,-0.1650045609,0.095633939,-0.3404773482,0.7973510015,-0.0451681559,0.501247558,-0.0581060622,0.8890427324,0.2161560778,0.1585111784,0.239870123,-4.1701368122,0.2028816821,0.1704768143,0.58491817,0.5049896087,0.1411927688,0.8856733754,-0.1940291347,8.7179681264,0.5702386208,0.4827808112,0.7565073876,1.4004763718,0.4205566249,0.5782432104,-0.6733163842,0.3451632146,0.2163309982,0.2933864715,-0.2988737032,0.5027807257,-0.1874316465,-0.5184074505,-0.3432610218,0.1754642709,-0.0608004463,0.1222926178,0.2994866306,0.096240408,-0.1795712696,-0.2080616558,0.1521171401,-0.0148291952,-0.0147146227,-0.8137862389,0.1035052387,0.120518561,0.2104198748,-0.4005490166,0.6136675572,0.0547777187,0.0106934148,0.3907687933,1.270625947,0.1404994684,0.0675640479,-0.2580829493,-0.9341678795,-0.0606824393,-0.4962282697,2.3379270053,-0.3083319138,0.510986816,-0.2053577091,0.1287631244,0.3322727514,-0.7764912209,4.4218424216,0.3951377182,0.0140474457,-0.6702921833,-0.5190539839,-1.2435562914,0.2648399978,1.2318355742,0.6322001673,-2.4667963334,-0.1300581373,0.4287155607,-0.4278503402,0.9279040412,0.1308800806,0.78552815,0.7368610791,0.0719739236,0.3439773345,-0.142574405,1.057845521,0.1462282524,4.5694475662,-0.519284678,0.978337971,2.0396421359,-0.0937386939,0.1231021474,0.1183421552,4.602758124,0.3379408052,-0.2380641661,3.5418244882,-3.5399040856,-0.3471059502,-0.4578298891,-0.0363419311,-0.0643884286,0.3767997348,1.4302075634,-4.4194021866,-1.2441534123,0.3938181067,0.2822749995,-1.2416858665,0.0329378225,0.2220031937,0.1196192306,0.3789495287,1.0605140263,-0.2479569731,-0.79663661,0.2011217396,0.1068213325,-0.2324875288,0.7629131345,-0.0097892371,0.0491160406,0.1068941316,0.7171226861,-0.1563923239,-0.0800955929,-0.0466248318,-0.0684639665,0.6514700622,0.0250309537,0.5817122724,1.9111254686,0.4637511968,-0.2732750016,0.3235444745,-1.7319112367,-0.5788230856,0.02102317,-0.3521641216,-2.0491769355,-0.7845694389,-0.0921022183,-0.2204865455,2.5991222124,2.3863655199,0.1336098654,-0.6237451066,0.6366672851,-0.9545879798,0.5855837192,-0.5200076379,0.2087079553,-0.3054841214,-0.1376003332,0.3794725219,0.0186771568,0.0495667865,-0.3480461412,-0.2196490756,-0.7160863119,-0.1076694534,-0.252917045,-0.0278297672,-0.7097207067,-0.0758255046,-0.033979145,0.5630011963,0.6776103388,-0.0527166248,0.4287851269,0.2295811819,0.057109391,-0.0417509483,0.4923149061,0.1719624276,0.6942178798,-0.3482882464,0.519084342,0.0352121261,0.5401327979,-0.2094355404,0.4063011859,0.1880738497,0.5154254908,0.1067038492,0.2430917997,0.5224046411,1.01617363,0.2668093613,0.2861919608,0.6217472851,-1.2165425188,0.1939354526,-1.254712065,-1.326522598,0.0332221957,0.0240686297,0.0615565516,-0.0478087179,-0.0093820918,-0.2316104116,0.5038927951,-0.0300530515,-0.0367217421,0.2795390206,-0.0942397816,-0.5620212266,0.0027927429,-0.1807666888,-0.3419209225,1.2695618088,0.042209808,0.2446105019,0.1369248927,1.5007024511,0.1652416532,0.385165301,-1.7605760687,-0.1184358564,0.3871524044,0.1005169428,0.5421720859,0.2805728681,0.2797040759,-0.1535332361,0.6593239076,1.827620778,0.2246443744,-0.0137271827,1.1347133127,-1.6429735849,0.1231498912,0.0012251079,0.1435118908,0.776343579,-0.3909872401,-0.1983028293,0.2143091767,-0.2608695595,-0.0492480957,-0.2994642764,0.5133476566,0.026027295,-0.1853059925,-0.8862600525,-1.0420897589,-0.2265922262,0.444835554,-0.0703513122,-1.5143416882,-0.2137000481,0.8062847757,-0.1351749198,0.0867597242,0.014515434,0.1865277196,0.2547572726,1.1432846356,0.0018385826,0.0914324035,1.5746351198,-0.5162757571,-2.7779511325,0.2211622178,-0.648640914,0.7394229277,-0.0094940476,-0.3785661609,-0.2164818436,1.1300385569,0.1813982716,0.5870087061,0.3679246927,-0.5494302704,-1.0185488776,0.3671015427,0.6784807032,-0.9071624187,-0.3220155654,0.0194757233,0.1202969072,-0.0050634038,0.1476899752,-0.1475910899,-0.327058797,0.1038412147,0.0687263553,-0.4662747278,-0.3264804926,0.1552986554,-0.0456905216,-0.6640436465,-0.4053904452,0.0873804045,1.1051650296,-0.5397477305,1.833943618,0.0820385868,0.6355814527,0.1277503759,-0.5057453169,-0.1576644049,0.6516704963,0.0236759164,0.3663248543,0.1571963306,0.2100820638,-0.6996140432,0.2450712646,0.393647887,0.3559148237,-0.6547100942,-0.4209864771,0.270277437,-0.0160262312,1.6091333149,0.6211774125,0.8306929595,1.0389674534,-0.4679615275,0.657711451,-0.104314275,-1.5712752702,-2.5862226324,-1.0262216568,-1.1697633152,-1.3452877776,0.8717392367,-0.8415253599,-0.7529167986,-0.6765207757,0.5367365558,-0.0695053463,-0.2668233715,0.9638263361,0.9795932416,-0.0146815205,-0.7285637843,-0.5535366337,0.4816399975,-0.0498286171,-0.2494686368,0.0741776299,0.0477034601,0.0996701084,-0.3898335807,0.1255572919,0.0696805988,2.2495979148,0.10776155,0.501997773,0.3746423554,0.1288367671,0.7858549802,0.4943280504,-1.1441051153,0.3423680059,0.264431283,-0.7254775434,1.8648814902,0.2612453856,0.1348848883,3.1244311124,0.4648838423,-3.1323219804,-0.0594656973,0.7503777582,0.0049161817,-0.1586174388,-0.0895476535,0.4136016544,-0.0688672788,-0.050612494,0.3005352686,-0.0466641434,-0.003960778,0.4165061538,0.3763692587,-0.9837636611,0.0808083694,-0.142760325,0.5576351547,-0.1997462083,0.0580625816,0.2975716052,-2.5136087408,0.042428794,0.0311311875,0.0792137459,0.3507033599,0.4427970318,-0.1775403486,-0.3009850699,-0.4093076976,0.0690234752,-0.0416058275,0.0530382522,-1.146376364,0.0656712227,-0.0055915413,0.0669124304,4.1809413455,-0.6239401845,0.0400965116,-0.2025716225,0.6716550745,-0.0651988234,-0.2398232623,-0.4744673145,0.4618487688,-0.2468105617,-0.6172771546,-0.2551162574,0.3285313983,-0.4030697691,0.4520438158,-0.7930478974,0.1192916962,-0.1704459485,0.5235725699,-0.4077337931,0.6143721996,-0.1054434586,0.1860185463,4.1998816664,0.1151492149,0.1079482908,-0.0460903751,0.6378293425,-0.4936453436,0.120407246,0.3466972241,-1.1405189768,-0.6173900465,-0.1976129591,0.0299603446,-0.8191597742,-1.5219152835,0.094338769,-0.0096990588,-2.3724113561,-2.4738490615,0.0976061016,-1.004910339,0.4273285206,3.6693206907,0.0638038706,2.5852500289,-1.7024433206,-1.1015362905,0.3165062393,-0.6010411065,-0.2807388174,0.0280159706,0.191575921,0.0378024764,0.1474756192,1.6470616761,0.0272164214,0.6340304049,0.3123933073,0.2142421309,0.5122419634,0.2456539286,-0.4313374847,0.0789348709,-0.1319967355,0.0697515719,-0.0841270291,-0.0110181506,0.1635300811,-0.4307906709,-0.1422184157,0.1082950579,0.0678760718,0.3486175332,-0.2013211595,0.1529409393,0.1966505548,0.4864004558,-0.5635713479,0.1001955264,-0.1612982993,0.6979542334,1.8082229775,-0.3408437986,-0.8289114831,-1.3529437086,-0.5761410609,0.2063354904,1.3203142462,0.7988659939,0.6034070623,-0.0891871718,-1.1943260361,0.8126692376,0.0586096716,0.0487925553,0.8682273796,-0.1503398674,0.2607264836,-0.1759265645,-0.4264043988,0.0374271364,0.0494964231,-0.0965004929,0.2192233226,-0.1707216327,0.1056326017,-0.8138984174,0.7759818405,0.0955132683,0.0837849378,-0.781204285,-0.1461762429,-0.2863613766,-0.407552283,-0.3661238181,0.0568353343,-0.7178625179,-0.0952692072,0.086142325,0.7456291081,0.1231481616,-0.2071626953,-0.177115676,0.1713085559,-0.0830599375,-0.1759361732,-0.3836530156,-0.2978906588,0.355388564,-0.2983231982,-0.7077381414,0.4482823478,-1.080770892,-0.948661153,-0.7520654155,-0.5390074903,-0.1147138953,-0.2187706665,0.2464894292,-0.1733667369,0.0012080162,0.0743941554,-0.3786274372,0.1892686986,-0.2378025656,-0.7561731288,0.539140988,-0.1646539907,-0.1822780303,0.0346597817,0.5439072997,0.151826837,-0.133281142,0.331703259,-0.673463864,0.6035919175,-0.0168401377,0.6075513459,0.199393939,-0.0812011826,-0.4000417258,0.7075479696,0.6353251093,0.5145773005,-0.4129244141,0.321664848,0.5400862297,0.8031452929,-0.003993638,0.0107504524,0.8870676861,0.8507334697,0.2593558939,0.6544007498,0.8281230746,-0.9624675679,0.3547860915,-1.1410423605,0.5605833666,0.2728283682,-0.0011714558,0.3500342288,-0.2691777553,-0.0733273974,0.6223576296,0.3838977349,-0.5639433909,-0.1733611411,-1.5625658798,0.7454417073,-0.4442076089,0.0417301994,-1.3780054054,0.5988947833,0.2953274694,-0.0247375439,-1.0632905271,0.4759559193,-0.4771644149,0.0796092124,-0.3620554121,-0.0683914981,-0.5193087336,-0.3291183536,-0.0709579752,-0.2487470834,-0.1892882309,-0.4794087545,-0.5960536816,0.8754880091,-0.5377212994,-0.2321433536,-0.7798051748,-0.3774647826,1.411853087,-0.1911695841,-1.3039070736,0.7098838477,-1.0876037022,-0.0411754214,-0.0625972586,-0.2274998745,0.0655961039,0.3073132609,0.2315817502,0.2733837921,0.0563439608,-0.1395294922,0.2017770553,0.2020492062,0.0461887402,-0.014569574,0.0718824809,-0.5396770009,0.0881484227,0.251223499,0.0470426352,0.0352381329,0.0184423304,-0.3181605547,0.6033585022,0.4769389426,-0.0036142031,-0.3702027813,1.3350562636,-1.8480290351,3.3932703145,-0.0177270341,0.3212292022,-0.9518167008,0.0440268232,0.2315636187,-1.8359002308,0.6513376366,0.166422756,2.3055620055,0.4170119953,1.5273645536,1.0359234821,-2.2111244709,-0.922084089,0.3570484087,-1.6774081951,-1.7019741011,0.2451418132,-0.5218148827,-1.1003560429,0.6366121613,-0.4085415598,-0.1792252462,0.4203243719,0.2726316053,-0.5294091099,-0.6356825792,2.401384883,0.0075955685,-1.0239671609,-0.1033438122,0.8001013673,0.5596180074,-0.2211738018,0.3577843308,0.4303285108,1.3754643294,-0.242876798,0.0863974914,-0.2016450056,-0.206646155,0.8796704387,-2.7326956124,0.4466141824,-1.0317019797,2.8063464534,-0.2733842452,-0.4534248752,0.1627708692,-2.1656575588,-0.0203575576,-1.0194779143,-1.2112271801,-0.712279368,-0.2117461524,2.4193039227,2.588123256,-1.2071336678,-0.5559557633,-3.1144115988,-1.4830591986,0.2028463517,0.1599541665,0.8568007029,0.0909614016,0.5668862049,-0.0766421888,1.7154147673,-0.0286830707,0.1464252835,-0.2297304509,1.8129762412,0.3180665671,0.0538456207,-0.0688438832,-1.8004049134,0.6433803529,-0.1218221324,-0.1258294652,-1.8948621529,-0.3722985949,0.2153854076,0.336965385,-0.0162049929,0.1078373866,-0.1017734139,0.039425425,0.2963422845,0.61047692,0.0092561224,0.3022856671,-7.1685870686,3.1027340786,0.0656611602,-0.4055402953,7.5697389786,-2.7942878483,-0.0884861415,0.739392958,-1.2677535479,0.3058339527,-0.162476907,-1.5924941749,-0.4858352228,0.0305227302,-0.2759794246,0.6218315372,0.049560779,0.0880876032,0.2272335231,0.1496577849,0.1661744965,0.0235635081,0.0489991461,0.4214152536,-0.364551688,0.0046106632,0.1350413547,0.7514259853,-0.3320845849,0.043809156,0.4148567442,0.4434233517,-0.0753788735,-0.0192970769,0.4930591321,0.2337496205,-0.3493733941,0.1025794694,0.5048586484,-2.6335803744,1.8398259337,0.0186305958,0.5040221655,-1.7004226855,1.7127615231,0.0643312847,0.4243536824,2.9827054009,-3.1642685944,0.3302706451,-0.8139130561,0.1705062345,1.8946649461,1.5113866398,-0.0830621235,-0.9091077352,-0.1352302856,0.2031533614,0.3601534895,0.0673999979,-0.1947741151,-0.178676443,0.3134109187,0.5128176356,-0.1067529597,-0.0751387256,0.1438018417,0.6860129548,-0.0894067662,-0.1918326102,0.3556290639,0.2086316354,-0.0455539938,0.0995010718,0.2535046623,0.2775426989,-0.0433502044,-0.1617834246,-1.7996936294,0.0056766583,-0.0787339461,-0.0423106339,-0.7865487496,0.2405819639,0.0214647596,-0.4403646254,0.1997842785,-0.2834108435,0.0191449803,0.0978391492,1.4755680748,0.5721249265,-0.0826296384,0.3454988867,0.3219081393,-0.8985263323,0.0029466143,1.3452875696,0.0778039635,-0.2284394889,-0.3841209812,-0.5733243375,0.7907037308,-1.1906002813,0.2113324879,-1.2469845537,0.438201099,-0.1634864209,0.3928954312,-0.1854180527,0.0318904822,-0.1318485028,0.4381649853,-3.2792993142,-0.7504971624,-0.1264320476,0.4366998896,-0.8346347444,-0.4710964611,-0.1675372774,0.2429620888,0.5595913943,0.2754503958,-0.4341519226,0.1399785105,-0.2094318283,-0.1259572412,-0.124051646,0.2385507568,-4.0396629864,-1.1892641882,-0.1446869175,-0.0857911459,5.7803318512,0.4374836934,-0.1343225049,0.2599397162,0.7293253215,0.2195411707,0.1005299143,1.1002709518,-0.379464757,-0.0171049046,0.0354173638,-0.9142308904,-0.1101599413,0.1190898214,-0.0537030216,0.5223933814,-0.1531660585,0.0059512097,-0.0907083547,-0.3214843541,0.2192525713,-0.0106938989,-0.1726373595,-0.7083381772,0.4100191548,0.0273222512,0.1998612241,0.1668365576,0.356662229,0.1271360541,0.1367111618,0.2127571365,0.8632558468,0.15576991,-0.03643181,-0.066731196,-3.3875569229,0.2006869457,0.1127052715,0.6301667508,-0.0510533214,0.2075158509,-0.5757779352,-0.7636220944,5.4575020828,-0.1269130328,-0.3589793166,0.1396804441,0.5398423531,-0.1608694273,-1.0570813394,-1.9599444139,0.2267100861,-0.2735550175,-0.820379818,0.0254051385,0.1807493246,0.212281089,-0.7541818791,-0.4260579413,0.1492828449,0.1382313881,0.2730833774,0.278924403,0.1654945317,0.1997215538,0.368840925,0.6267951508,0.2223428005,0.0998823808,-0.08831231,0.5139837363,0.2690703417,0.2397215321,-0.0841073519,2.1549779706,0.3507886459,-0.13394317,-0.1822572197,2.0928535392,0.1342828177,-0.482028877,0.1617020628,-2.5109239029,0.0150781523,0.5265003348,0.5100885357,3.1476666793,1.3533021887,-0.0834860126,0.267849559,1.9571295694,-0.0039309571
biasActivation=1,1,1
[BASIC:ACTIVATION]
"org.encog.engine.network.activation.ActivationTANH"
"org.encog.engine.network.activation.ActivationTANH"
"org.encog.engine.network.activation.ActivationTANH"
