encog,BasicNetwork,java,3.3.0,1,1479227107272
[BASIC]
[BASIC:PARAMS]
[BASIC:NETWORK]
beginTraining=0
connectionLimit=0
contextTargetOffset=0,0,0
contextTargetSize=0,0,0
endTraining=2
hasContext=f
inputCount=40
layerCounts=11,31,41
layerFeedCounts=10,30,40
layerContextCount=0,0,0
layerIndex=0,11,42
output=0,0,0,0,0,0,0,0,0,0,1,0,0,0,0,0,0,0,0,0,0,0,0,0,0,0,0,0,0,0,0,0,0,0,0,0,0,0,0,0,0,1,0,0,0,0,0,0,0,0,0,0,0,0,0,0,0,0,0,0,0,0,0,0,0,0,0,0,0,0,0,0,0,0,0,0,0,0,0,0,0,0,1
outputCount=10
weightIndex=0,310,1540
weights=0.1802897296,0.652970711,0.6192982088,0.3970045299,-0.363531695,0.2305821419,-0.3804536368,1.0100531509,0.288800054,0.1146184455,-0.5553425329,-0.564414727,0.4107743265,0.1391724598,0.6007900047,0.0860225065,-0.6212831805,0.2076039845,0.2651250612,-0.2718327835,0.3667338308,0.4124943337,0.5771929378,0.2386648337,-0.3729883528,0.3954592676,0.3451485285,0.1264737624,0.2363082294,0.3694453894,-0.0542125777,0.1167715634,0.1778634168,0.2786239576,-0.0749714391,0.4000455574,0.0128298133,0.4293479685,-0.3574231858,0.5767273632,0.2080654873,-0.2582755334,-0.0236109626,-0.078135168,-0.087474615,0.396925021,0.0043164953,-0.2102466399,-0.215763344,-0.1013312934,-0.0090671045,0.2898089094,0.2675527498,0.3397779892,0.0554811844,-0.0359047082,0.1583125566,-0.1151833034,0.0857294718,-0.0890915075,-0.0300179361,-0.0205666193,-0.1260630002,0.3339668982,0.5393234812,0.8578136505,-0.2850607256,0.0669234635,0.0983878708,0.4313659069,0.2100763246,0.8282268864,-0.4787229874,-0.0057341149,0.4766169669,-0.2189854847,0.4425551165,0.1708328931,-0.1494500995,0.1511317235,0.2573360166,1.0255310288,0.6245456393,0.3890380503,0.7922243585,0.2863987864,-0.2507818776,0.155170393,0.712142796,0.1036467274,0.0060133113,0.2947997858,-0.1892262596,0.1632501656,0.4842337257,-0.4212540593,-0.148736071,0.4268528869,-0.0588524288,0.4035462382,-0.2464687662,0.6548609412,0.2382744823,-0.0202094438,-0.0176890866,-0.5094901752,0.7621341021,-0.6428384157,-0.3787180881,1.1421711325,-0.2774534323,-0.2041242089,-0.0293605018,0.3183471185,0.3439962276,0.4165390172,-0.174113938,-0.1220095935,0.2550885552,-0.2063377441,0.1036052811,-0.0363288374,-0.4781462936,0.5060607637,0.5808254641,0.0400147191,0.1382693187,0.3060814539,-0.0978601296,0.3287757654,0.443057802,1.0489873163,0.0541765786,0.5987249495,0.0753424162,0.1781760234,-0.0412654839,0.1576945473,0.5657020595,0.1766668829,0.2221051868,0.1687976863,0.2460121299,0.9830903658,0.725595372,0.3761042721,0.8990161102,0.4011925961,-0.3906965307,0.8019675502,0.7513394933,0.2214379342,0.0826589801,-0.0164015857,-0.3157695431,0.3872620422,0.4599716823,-0.2340423238,-0.2588616793,0.3380232117,-0.0136129387,0.3654768599,-0.2242292844,0.624770424,0.199698121,0.422332212,0.2795268784,-0.4894051476,0.3756449565,-0.1313219364,-0.2013462225,-0.1405495037,-0.6691058671,0.3674780222,0.1151021924,0.0308695586,0.1803302804,0.364941898,-0.2589634382,-0.4173820576,0.424583948,-0.2735927442,0.0943055749,0.5312132798,-0.3039928249,-0.2021361198,0.1249848198,-0.2042069875,0.3143830952,0.7528623148,0.392197577,0.4686595493,0.105334998,0.3852438481,0.3246248057,0.4632971009,0.4117112855,-0.3140822838,0.3400917574,0.547985242,0.7256085484,0.4458313377,0.3432497993,0.0508840457,0.2450344105,0.3611968799,0.1876598639,0.1812701168,0.2646837499,0.5238906612,-0.4304391063,0.6532224985,0.8003061781,-0.9321077847,0.4359868111,-0.0097831101,-0.2284564107,0.2225126346,-0.2919912081,0.3517942788,-0.2109823645,0.2463420388,0.1371708684,0.3605161284,-0.2331432846,-0.0810115495,0.1371676941,-0.5772045013,0.248604226,-0.4876622769,-0.0068691214,0.0417539387,0.1010387747,0.7885006647,-0.7879103687,0.0532362567,0.2427651018,0.218269303,-0.1302115222,0.2194831059,0.2049672873,0.1388161195,0.3628421443,-0.3401664445,0.2021599369,0.4621027612,0.0452068862,-0.6580863459,0.4954770602,-0.4305293626,0.4429147991,0.6700939838,0.0156830768,0.2188244821,-0.0251411381,0.2088539437,-0.0344688073,0.2742752132,-0.2589940085,0.2671804356,0.1254948948,0.1390320206,0.56469264,0.682973615,0.3081573226,-0.0243213354,0.2493850799,0.3459907847,0.2540437379,0.6186651502,0.3656269127,0.665591662,-0.2150269866,0.0986821394,0.34692668,-0.0856130792,-0.0089010766,0.1666655715,-0.7543711512,0.1068020323,-0.0118180029,-0.2730319149,0.0725725225,0.2213235747,0.7009684925,0.3968301957,-0.2317949702,0.4662777977,0.3439881519,0.120794553,0.3465420882,-0.4392253255,-0.1957474278,0.1118001962,-0.6178639115,0.299439886,0.2492077649,0.1676251659,0.2235548321,0.1762385636,0.1419721771,0.2514021765,-0.2494597284,-0.2457569501,0.1552397465,-0.2326607714,-0.2980775703,0.5245284472,-0.8847660343,-0.1504901106,-0.0973813842,0.1243272699,-0.3610485872,1.2121358753,-0.3065076239,0.7968664273,-0.3468539717,0.0403169913,0.0426761333,0.5667457267,-0.2900084175,0.5284859323,-0.4011783087,0.3522497863,-0.5874724253,-0.3172682637,-0.3598199493,0.4353556597,0.1649491344,-0.139899135,-0.5254674154,0.7981337771,-1.3453468861,0.260435912,-0.2871806144,0.7583004271,-0.2274921744,-0.0445413487,-0.3013712386,1.168527417,-0.184347817,0.3099403062,-0.2141159065,1.9123015602,0.3511369063,0.1475224639,0.3878601817,-0.078591552,-0.7458093487,-0.1063330254,0.1275594214,-0.0672682479,0.3854300801,-0.9585668413,-0.3539271367,0.3001690561,0.7634371482,0.5710670222,0.2291530104,0.3283387243,-0.136087195,-0.0134803005,-0.2397596641,-0.0247341733,0.9985403963,0.6430664217,0.1874303412,0.1539579979,0.7480429649,-0.0793829165,0.2337417522,0.5632614818,0.8543833574,0.0195466025,0.017594428,0.2182387397,0.4336385429,0.417456962,0.1666765685,0.3182079571,0.4187895544,0.0028878205,0.46257458,-0.2219096639,0.5719596113,0.4209028408,0.7837373385,-0.6183458875,0.8148037696,0.5434818751,0.4370440486,-1.3377610172,0.9803131988,-0.0631274922,0.3099066731,-10.946172574,0.900713911,-0.4361377943,0.6435378371,-7.2512684669,2.0179877528,-0.4978817662,0.6338357373,-0.4437561067,5.6300276495,0.0082052625,-0.0479082172,-0.3706351031,267.6918940671,-0.1309428365,0.3022908939,-0.1254459378,167.3346499569,-0.6534022833,0.0789996719,-0.5014629705,4.3562297223,-0.4012914097,0.3819472466,-0.0881877725,1.2530191715,-0.7024109195,0.2332976142,-0.1106274695,1.2043539303,-0.5070699968,0.5756123118,-0.2771119844,1.1173454579,-0.5079402738,0.659209813,-0.0890714816,-0.4454257842,-1.1961513999,0.5143008462,-0.0134849618,-0.7922145674,-1.2642468911,0.4136959452,0.4052380914,0.0050594195,0.1249584365,0.2458875359,0.7999412314,-0.3431687303,-0.1617666739,0.2251788155,-0.5972642978,-0.2321245309,-0.2913080022,0.4519387308,0.4887668884,-0.2551327369,-0.3628180628,0.8933521249,-0.7971329702,-0.074639131,-0.2495423183,0.9709924689,0.0641746279,0.212851284,0.0421329428,0.5491538281,0.0853736462,0.1965138444,-0.3047841103,1.5757264995,-0.4995625409,-0.4299179667,-0.0827425748,2.489170759,-2.4844581933,0.0459535822,-0.2431335663,-0.611608588,0.0879200856,-0.3640911783,-0.4364800195,-0.3414665876,0.5420462411,0.3068016378,-1.1147491867,-0.9970440545,0.1033213086,0.0877957608,-1.3343603914,-0.9127061671,0.6438574529,0.0828871522,-0.7703717978,-0.9528025598,0.4100856918,-0.8956847501,-0.1180645411,-0.5418225281,0.392202332,0.4755398167,-0.3036039069,0.1547961296,1.1936867179,-0.0017370942,-0.0832818852,0.144533287,1.1109158712,-0.3118380466,-0.8069110121,-0.0179230792,1.7372859097,-0.2348501421,-0.5685051768,-0.1162529866,1.3913586133,-2.4275379896,-0.9470831713,-1.1020928026,-0.0806311421,-0.5744326866,-0.429552672,-0.0978988671,0.087213345,-0.4041081796,0.0558245417,-1.0214626796,0.0781415534,-0.0635709019,-0.222196923,-0.1143786264,0.2562155525,0.4229080769,1.7316196161,1.3583547574,0.4318764244,0.3406985427,-0.4194021388,-0.0792923051,0.2783721858,0.0292713116,0.2587295101,0.4904994069,0.4474424059,-0.0181150129,0.1174338579,0.5088278639,0.0881778505,0.1296813518,-0.2056728488,0.9345639923,-0.1108775512,0.2799916152,-0.6796018523,0.8481647151,0.5598287123,-0.1161725093,-0.4720333597,0.3879685479,1.1937862417,-1.3200721231,0.3299010193,-0.0967803652,0.2261054842,0.2638769194,0.4929509703,0.1868126398,0.8222191961,0.0358487029,-0.0185309423,0.5997676302,0.6337529638,0.1557848421,0.5294031288,0.5808856497,0.6972969366,0.3237739815,0.3832368396,0.8241127695,0.5910821438,0.0892230939,0.703542156,-0.582156709,0.7249465253,0.5602047708,0.709752274,-0.4367490405,0.1773001112,-0.0789244578,0.726545321,0.7785444768,0.3644810756,0.2609543419,0.7704125544,0.1741329246,0.7227796858,0.2073251863,0.4361723167,-0.2180772496,1.1489121424,0.9099482029,1.2464748472,-0.2144206888,0.4564361211,0.043261236,0.8248998684,0.0333868011,0.9964391404,-0.1582733259,0.4133284634,-0.1045578465,0.2218069979,0.0968990998,-0.8415046391,0.0587326281,0.4765111747,-0.0056093223,-2.3310839523,0.0767015766,0.8124773405,-0.1456834979,0.6341459055,0.1068700787,0.7453952699,0.1060108193,0.7147018785,0.432515818,1.5162619254,0.2272284451,1.2385601211,0.1011459458,0.2615322476,-0.1429571179,1.1466673662,0.1854425591,0.5997685675,0.2809555095,0.8549641793,-1.366035205,0.7791476029,-0.0765838593,-0.4034322223,0.7347219974,-1.554280955,-0.0814757744,1.1285263706,1.8730157349,0.6365890856,1.2911557446,-0.0764906897,1.5129167574,0.5042150456,-1.0227863541,0.1436253694,-0.2398908694,-0.7286694227,-0.6885621722,-0.3616572125,-0.606183863,0.6263802843,0.1944342857,0.3436754179,0.1099391135,-2.9649005232,0.3950592224,0.1967579763,0.1010970218,3.1429536228,1.5454820117,0.2991539035,0.0276465528,3.4461408998,1.7226598101,0.9510961823,0.7301227882,3.0967291217,1.0741215034,0.1475119175,0.5613175322,5.1481771892,0.7859321179,-0.8178324753,0.2962481582,-0.2588093541,-0.4826126913,0.4230595269,0.0442197264,-2.4227545457,-0.7509313947,0.1149824544,-0.0849435882,-2.5212560653,0.1191447687,0.011496242,-0.3376923532,-1.4205726341,-0.1788968844,-0.0641804786,-1.0946752747,-1.6625534274,0.2346765151,-0.1712667263,-0.6368205884,0.0492821889,0.024280536,-1.0053475133,-0.6794717442,-0.5955604925,0.557539048,-0.0881449768,-0.7349235882,-0.1234348259,1.201885781,-1.8903160159,-0.4938554591,-0.2363924001,0.9392672546,-1.2699287061,-0.5722944189,-0.4534401273,0.9344935148,-1.5128706296,-0.5283337626,-1.4875008198,0.7163186388,-0.1854179139,0.8155262382,-8.4621962448,1.0386852882,-0.4579153658,0.7965037172,-6.4678069761,1.9755398031,-0.4792707248,0.4948628604,-0.2475711231,-11.7519398439,-0.2795999771,0.6715769557,-0.7171725456,111.2743983399,-0.8228245047,0.7518902784,-1.5035561112,228.8897990893,-0.1541157148,0.1290863304,-1.6165535899,5.5864357907,-0.1647847707,0.8001046283,-0.245982814,3.803254511,-0.826689855,0.7250463608,-0.1044282552,0.7403716269,-0.5134691925,0.6793051212,-0.1924786461,0.7237175212,-0.5104732911,0.3268564601,0.2493279298,-1.2377543652,-0.2124277239,0.2079653869,0.7095046767,0.0704783305,-0.5119463026,0.0671904949,0.8688589544,0.2455098868,-0.124389702,0.4785569022,0.9044770088,0.1284848481,-0.6413593217,0.4572711197,-0.3645322507,0.3799074809,-0.4240838508,0.900651799,-0.2732111057,-0.6794720481,0.0329758362,1.0363450716,-0.4903329621,0.3414533506,0.3659386666,1.4350039378,0.0107736856,0.4102509461,-0.1233854037,0.9628545265,0.0840137181,0.2730456817,-0.3528665653,0.8585480694,0.2266402016,0.3611511941,-0.565066103,3.7939061444,0.9519361524,0.1240478655,-0.8369860139,-0.9215033598,0.5502011767,-0.5596144534,0.4078919079,0.0931795845,-0.3486762354,0.3691964488,0.59691203,0.3190005023,-0.0062663802,0.2781367227,0.3017307701,0.5234670089,0.5148707427,0.0207867398,-0.0349324273,0.8702766514,0.0043848102,0.0861033147,0.3293369515,0.6812190682,0.5295904092,0.5406936331,0.6472042336,0.2176925729,0.7247264758,0.0315417653,0.8609797498,0.6709097237,0.5947075365,0.3534018559,1.0062056606,0.4987781009,0.6769752778,0.1389423383,0.8095834287,0.951602215,0.8306433583,0.4173427349,0.6281208944,-0.4150173804,0.1048025927,-14.1309678708,0.1271259155,-1.7830190213,-0.3851245888,-0.0539376388,-0.6529166767,0.2990817976,0.2360776974,0.3493124773,-0.3851136163,0.4248760154,0.5636556664,0.9488585742,0.576339649,1.0979380665,0.4413614069,0.8504242011,-0.1865227893,0.1230870342,0.5850540822,67.1949864857,0.1782449659,0.0541220406,0.3072343792,220.6910165481,0.5785580804,-0.1016870548,-0.0304573814,1.750448653,0.5252141199,0.3855038712,0.3199180114,7.2818609983,0.6554138618,0.2839283271,0.2727055321,4.0784809719,1.0810251593,0.5056951252,0.7314643916,0.5128558724,-0.0314936498,-0.0276309501,-0.4853351972,0.6105283795,0.3509929142,0.7410858157,0.0819711638,0.1227088551,0.6867277982,0.3013892371,-0.1496734184,0.8020467898,0.3814288209,0.889435545,-0.0783110425,0.7674617306,0.1853359219,0.7468585239,-0.1795404793,0.7630317233,0.6553361931,-0.5660704888,-0.3201740077,0.5243784362,0.3932962098,0.3593483195,-0.1135602374,0.7006720635,0.61897302,-0.1086304111,-0.0512981149,0.7806433468,0.6351942832,-0.0019293928,-0.0038368445,0.5698099941,0.3463691605,0.1641376178,-0.4617360346,-1.1694106862,0.8692710749,0.268406744,-0.0039509586,-0.0114122191,0.8494004039,0.5797809268,-0.1543531306,-0.0091912656,0.7739236152,0.0326527774,0.506059994,0.2447422034,0.4959271548,0.2855804496,0.2782248807,0.4479456081,0.2450561736,-0.0405495608,0.2303971612,0.4377109188,0.6685526027,0.1135276594,0.741597616,0.4915327097,0.1796290112,-0.0402682628,0.1348688475,0.3620410397,0.4166815338,0.2880855631,0.6967165738,0.5311289936,0.2308229724,0.1564628802,1.8140197872,0.0726472134,-0.9283377724,0.206897735,0.4607674715,0.258651703,0.6173121728,-0.1768633356,0.8865785039,-0.0593268979,-1.8620273901,0.3251964687,0.3781697387,-0.2122883554,0.2957266164,0.1642723822,0.3307779687,-0.4895830568,0.2921092153,-0.1149201537,5.9901475594,-0.0591219661,1.541372293,-0.0570927861,-1.66443195,-0.0460500208,0.5202520301,-0.169794392,0.1236084655,0.2154604042,-0.1229918982,0.1460542267,1.4002054012,0.2921390663,0.0094510637,0.1304766713,0.7644299722,0.6779456626,0.700002963,0.2088946621,2.4150422008,-0.1733726842,-0.0380319054,0.2655489113,0.0043696008,0.1402456431,-0.203245433,0.0435673405,0.2918526982,0.6473605999,-0.4429694871,-0.1356142389,0.3763050841,0.3442958659,-0.4600108367,-0.0508759891,0.3317174644,0.5699702366,-0.3607164634,-0.059243021,0.5374868677,0.6855396538,0.4588301667,0.5420820689,0.6610993167,0.5164652596,0.5586040744,-0.5140519401,0.58050003,0.5528771714,-0.3249425357,-0.2830757427,0.3435078658,0.352196268,-0.0336013194,-0.4074981079,0.9598425027,0.5544098597,0.4867343065,0.0942854612,0.3248103747,0.1797107179,0.3249873013,-0.5517026771,1.0491664465,0.814259552,-0.1644730414,-0.2533059575,-0.9773430019,0.394406509,-1.0319951101,0.1675276891,0.6146799156,0.4887282639,0.6407786939,0.0046463768,0.0682400539,0.0278794372,1.0334234077,0.4085412835,0.002744971,0.1161186907,0.8778062918,-0.3289130267,-0.0723060831,0.4314571272,0.4841498086,-0.6792555112,0.1706101104,0.3029296299,0.7756645738,0.210186399,0.293495239,0.1927563602,0.2572678287,0.4584973733,-0.1076183164,0.7355673105,0.0932955684,-0.0035882987,0.0921628895,1.0261215147,0.3708819191,-0.0463935087,-0.0820066786,1.828045753,0.3740702981,0.4701075935,0.3392214905,-0.4517203581,0.6300100911,0.1693277393,-0.2875899369,0.1789949099,0.9415705012,0.1499138203,0.2100605058,0.2606568905,1.1584954163,0.0552755897,0.4681662398,0.1313014666,1.9146146766,0.050851777,0.6598051509,0.2930178379,0.5526636677,0.5928180425,0.8672505429,-0.0961614957,0.1541396909,0.175049593,0.9372373211,-0.0280810302,0.0190987171,0.135806384,0.2203847661,0.3216423965,1.2223536283,0.4839749642,0.4787700407,0.0269911781,-0.5868900633,0.1849230815,0.6403388923,0.1500291568,0.6281656063,0.2895358505,0.8313747727,0.3458130144,-0.7151608424,-0.4219747483,0.0032332437,0.2842081789,-0.1070136903,-0.8386047943,0.7224157501,-0.1392505135,-0.0969419909,-0.5149940969,0.9519240177,-0.3066365842,-0.2529664822,-0.2062247867,0.5776127909,-0.0880964275,0.0365143543,-0.0796266894,0.943015395,-0.0069805757,0.0454771067,0.3141725885,0.7474501405,-2.1612303481,-0.0136268799,-0.0702777082,-3.2625790198,0.0156634218,0.4155938393,0.2265593334,1.0744597386,-0.0671759796,-0.4048857087,0.4443998127,1.4627552791,1.1030261804,-0.012277318,-0.0941452869,2.4113372337,-2.3037325379,-0.2416708034,-0.5182972619,-0.551214914,0.5105952923,0.8815028194,0.6525635424,0.4631018056,0.5968493599,0.7528636573,1.0354630989,-0.0821575175,0.1282815332,0.4579387251,0.8995268054,0.4920409327,0.4695299117,1.1391881397,0.453836703,-0.0617669538,0.1081419573,0.7417557145,0.39555598,0.2429762174,0.6041879793,1.8264388919,0.9093063336,-0.0332305631,0.3543046113,0.2956440187,0.3366529225,-0.193549538,0.4838122745,-0.323868094,0.3708614759,0.4621563771,1.44725481,-0.7415676309,1.1820277095,0.0068367757,0.3642083863,0.2166779418,0.9517160605,0.8986472303,0.7572000275,-0.2285135109,0.9285944992,-0.9337137387,-0.1304043714,0.1290205615,0.6735325856,-0.6715044469,0.3438700445,0.0451270748,-0.3568736507,-0.4299092461,0.4110652405,0.1544460663,0.4373177947,2.3464377332,-0.1746681729,0.5673870749,0.1107769061,-0.2350276204,0.4145861776,0.3717518741,1.3343282169,-0.2556432963,0.1195383503,0.2846674851,-0.3056641874,-4.0459765919,0.1581735064,0.681866356,-0.9233361602,-0.5197987136,0.1655039729,0.6714365855,-2.6325367768,-1.4087965763,0.1752821522,-0.2165503792,-1.2011033699,-0.8363422469,-1.7373095652,-0.0531059827,0.9759787803,-0.0749650176,-0.0892106705,-0.1101633473,0.1275879091,0.1993403052,0.1534438912,0.3041506841,0.2054596946,0.3818550225,0.5064584309,0.3237047832,0.6933953422,0.1975849088,0.644434964,0.3036328736,0.3658713697,-0.0763935294,0.6556501159,0.2313979434,0.3876694427,0.1041235959,0.6039400079,0.5781355757,0.6937002111,0.4880055076,0.6087444029,0.8662431756,0.5610466785,0.0208070632,0.3425379974,1.1838128848,0.7667343198,-0.1721203923,0.5776010062,0.9233224918,0.8304089849,1.0390088517,0.5727091813,-0.2868864937,-0.3216456825,0.5405325841,1.4296318814,0.3917324377,-0.1179506303,0.498924645,-0.1748143855,0.7228884415,0.3254469368,0.1605197455,0.4359658706,0.828974256,-0.0988440381,0.5429770576,-0.0655715959,0.6470824251,0.4432055899,0.8300423734,0.1470960704,-0.4680790087,0.3996740267,0.8800171046,-0.7012250884,-0.246285421,0.30110767,0.6999412432,-0.3563231006,-0.2126709988,0.277368004,1.0311438216,-0.271431721,0.4948225232,0.526274667,1.110366199,0.3029168271,0.2464846259,0.0070005663,0.8047788139,0.5592700611,0.158006475,0.8109394515,-3.1611506035,-0.1784848602,-0.1387966027,-0.5116545187,-0.6905644046,0.5758944031,-0.1512796506,-0.3593632705,0.0586416653,0.6650719473,0.0845156812,-0.5668538148,0.4400281023,0.6235584706,-0.178139582,-0.4118685974,-0.2846407306,0.8121915034,0.2338146739,-0.556434908,0.4323355015,1.1343042151,-1.2322300074,-0.2910831042,-0.0802127755,1.1284543153,-0.8457219027,-0.083408242,-0.3010593876,1.4711780388,-0.5927027541,-0.7761035316,-0.0002060079,1.334927745,-1.1113998653,-0.4334145103,0.2413461932,0.3675713731,-0.5104986878,0.0875313578,-0.7513644938,2.3473274179,-0.3438717602,0.0776855845,-0.6682583801,0.9309135229,-0.506019466,0.4487508107,0.4716135352,0.2551301367,-0.7078765589,0.084177699,-0.3089449457,2.3771695658,-0.3628565792,0.6386815313,0.2983463948,-14.7811109311,-0.8311974231,0.565599582,0.6019587598,-5.4573035438,-0.7611126713,0.1482970702,-0.2896987124,4.4138625283,-1.0869934984,0.7462386097,0.0954373592,18.9235584822,-0.946265158,0.5090811015,0.0136159905,3.3643170546,-0.8811520442,0.7918271506,0.6009484188,-0.0403907912,-0.886508317,0.7425398657,-0.0007846366,-0.7789738285,-0.2555904153,-0.3351217822,2.4390082385,0.3572061057,-0.181926634,0.2377854631,0.48835157,2.1189150355,-0.0056087897,0.3321162493,3.4955701359,1.1874819357,0.3516724033,0.2112272166,1.6882459436,0.4684605548,0.1562612,0.8121633426,0.6434518777,0.3457148745,0.2346629041,0.9117918352,0.5852972775,0.3688838444,0.3987924596,0.3914933348,-1.5318316264,0.4396068343,0.4382381241,0.58293635,-0.6938779671,1.1005312917,0.2547375873,0.8532374091,-0.2232993025,0.7993634492,-1.0164424361,0.6874662565,1.2348976683,0.4780483103,0.3725919605,0.2977708012,-0.3754828834,-1.8917872181,0.5651275505,0.3833513548,0.5644089733,8.5255281679,0.7658431812,0.3999585162,0.7192189821,0.2829838936,0.919426776,0.3130973854,0.427865121,-1.1189588323,1.4487072028,-0.2778130359,0.639236428,0.1234018579,0.2970131514,0.221987291,0.4439834822,-0.596288198,1.2527009319,-0.1398128235,0.7116178343,1.337453373,0.6020148456,-0.2568151172,0.6242399928,-0.2938652751,1.4485651555,-0.4135515762,1.0182865594,-0.9176637208,0.3447830372,-2.559498184,1.0101013468,-0.6218634469,0.9603670237,1.1832746509,-1.6495685699,0.7397091781,-0.1697670567,0.1532919606,-0.5915024953,0.7366018539,-0.3084574641,0.4485060049,-0.6833190813,0.5910152004,-0.4412985714,0.9578468157,-0.3142763088,0.3761001666,-0.6806981164,1.0052812884,-0.1728404783,0.1201464321,-3.937495441,0.5261676367,0.3398358458,0.0465079243,-0.2008167627,0.5093976131,0.2213135022,0.3088084287,-0.9497376041,0.4833160074,0.1196842426,0.7551734654,-1.2263380966,-0.0886696998,-0.1214573394,0.2427630394,-2.7060101525,-1.0108766637,0.0674566873,0.2666290801,-0.9382328127,0.3767957741,0.0090036746
biasActivation=1,1,1
[BASIC:ACTIVATION]
"org.encog.engine.network.activation.ActivationTANH"
"org.encog.engine.network.activation.ActivationTANH"
"org.encog.engine.network.activation.ActivationTANH"
